~h "f"
<BEGINHMM>
<NUMSTATES> 5
<STATE> 2
<NUMMIXES> 10
<MIXTURE> 1 8.379531e-002
<MEAN> 39
 -1.100132e+001 -1.507629e+000 5.286411e+000 5.901514e+000 1.883457e+000 2.984173e-001 -2.267562e+000 -1.421130e+000 -2.029700e+000 -8.125367e-001 -5.360930e-001 -2.711542e+000 5.227489e+001 -5.095788e+000 -1.696621e+000 -7.312185e-001 1.086982e+000 1.082798e+000 6.809577e-001 9.642316e-001 1.288318e+000 2.270788e+000 9.616309e-001 3.370467e-001 5.757959e-001 -9.360286e-001 5.963516e-001 -5.518724e-001 -6.216772e-001 -1.133040e+000 -1.055158e+000 -2.527018e-001 -5.493749e-001 -8.677255e-002 -4.314532e-001 4.211203e-002 1.891589e-001 -1.295372e-001 2.562751e-001
<VARIANCE> 39
 2.583579e+001 1.714888e+001 1.768794e+001 1.732637e+001 1.677207e+001 2.317034e+001 1.957299e+001 1.885118e+001 1.923330e+001 1.748584e+001 1.841182e+001 1.546110e+001 2.689937e+001 2.333710e+000 2.154598e+000 5.479347e+000 5.589773e+000 4.148128e+000 3.470205e+000 3.396770e+000 3.723966e+000 4.144585e+000 3.967475e+000 3.933262e+000 2.597734e+000 1.499691e+000 5.463322e-001 4.699343e-001 6.001114e-001 6.452432e-001 5.413819e-001 6.319258e-001 6.051217e-001 6.727058e-001 7.212463e-001 7.243521e-001 6.977258e-001 5.134848e-001 2.294584e-001
<GCONST> 1.184740e+002
<MIXTURE> 2 1.408947e-001
<MEAN> 39
 -1.837436e+001 -4.599813e+000 1.051758e+000 2.797337e+000 -1.215643e+000 -3.220881e-001 -2.694180e+000 -8.687412e-001 -1.048570e+000 2.477026e-001 8.761317e-001 -1.353975e+000 4.230445e+001 -6.223547e-001 -4.011827e-001 -9.094121e-002 2.347673e-002 -3.654976e-002 1.774197e-001 -1.052047e-001 -8.296016e-002 3.523422e-002 -2.487206e-002 -4.305078e-005 -5.012083e-002 1.419588e-001 2.806722e-001 -1.182981e-001 -2.508045e-001 -2.892584e-001 -1.026514e-001 -1.103658e-001 9.261669e-002 1.086776e-001 9.634680e-002 -4.070925e-002 -5.004580e-002 -8.644789e-003 4.476618e-001
<VARIANCE> 39
 1.613273e+001 1.479552e+001 9.086260e+000 8.821017e+000 1.004071e+001 1.148262e+001 1.222995e+001 1.248927e+001 1.377879e+001 1.342969e+001 1.260499e+001 1.178446e+001 3.435368e+001 1.352927e+000 1.745261e+000 1.216337e+000 1.302225e+000 1.423114e+000 1.549285e+000 1.665647e+000 1.706509e+000 1.750719e+000 1.668923e+000 1.443722e+000 1.282349e+000 3.190527e+000 2.716613e-001 2.559348e-001 1.874051e-001 2.101970e-001 2.101732e-001 2.691687e-001 2.541652e-001 2.500319e-001 3.132411e-001 2.850387e-001 2.743268e-001 2.610785e-001 3.740205e-001
<GCONST> 9.350928e+001
<MIXTURE> 3 1.123819e-001
<MEAN> 39
 -1.896169e+001 -5.485884e+000 1.772631e+000 4.831552e+000 1.961854e+000 3.479635e+000 1.435367e+000 3.472681e+000 2.563593e+000 2.123238e+000 1.374887e+000 -1.431408e+000 4.652198e+001 -8.452762e-001 -4.511027e-001 -6.156369e-001 -3.269519e-001 -2.343299e-001 1.295617e-001 7.591879e-002 1.297832e-001 1.371162e-001 2.167698e-001 2.414686e-001 1.523183e-001 -2.830062e-001 6.561998e-001 3.633938e-002 -2.306584e-001 -5.093969e-001 -5.100262e-001 -6.247237e-001 -5.816964e-001 -5.754772e-001 -5.208738e-001 -3.344684e-001 -1.726645e-001 -6.722201e-002 3.471790e-001
<VARIANCE> 39
 1.448048e+001 1.541140e+001 1.331129e+001 1.269613e+001 1.233533e+001 1.311675e+001 1.221690e+001 1.261527e+001 1.548660e+001 1.625847e+001 1.390508e+001 1.294957e+001 4.371972e+001 1.455959e+000 1.385297e+000 1.490633e+000 1.553005e+000 1.518708e+000 1.706798e+000 1.689944e+000 1.749437e+000 1.893623e+000 1.782348e+000 1.508000e+000 1.646928e+000 1.879961e+000 3.704225e-001 2.764807e-001 2.966390e-001 3.212883e-001 2.483865e-001 2.956541e-001 2.944338e-001 3.598545e-001 3.761293e-001 3.870966e-001 3.699896e-001 3.572963e-001 4.054974e-001
<GCONST> 9.883514e+001
<MIXTURE> 4 1.088533e-001
<MEAN> 39
 -1.697780e+001 -7.776353e+000 -4.118851e+000 -3.179940e+000 -6.972896e+000 -5.081098e+000 -6.258029e+000 -3.436068e+000 -2.280077e+000 -1.232975e+000 4.842964e-001 -1.009933e+000 4.932932e+001 -4.702018e-001 -5.369183e-001 -3.800367e-001 -1.740113e-001 -1.123170e-001 2.939992e-002 -2.232955e-001 -2.279374e-001 -8.391938e-002 -2.694207e-002 5.164355e-002 3.259557e-002 7.759206e-001 3.196682e-001 3.133243e-001 4.165491e-001 4.360924e-001 5.964316e-001 4.622806e-001 4.468688e-001 2.451202e-001 8.026908e-002 7.747366e-002 -1.366753e-001 -2.276294e-001 -1.590836e-001
<VARIANCE> 39
 1.942348e+001 1.715996e+001 1.303719e+001 1.410957e+001 1.532346e+001 1.623221e+001 1.563039e+001 1.582692e+001 1.574675e+001 1.648449e+001 1.477778e+001 1.288128e+001 2.829109e+001 2.098106e+000 1.544998e+000 1.529110e+000 2.047086e+000 2.173800e+000 1.961342e+000 2.091140e+000 2.188503e+000 2.239815e+000 2.025758e+000 1.934292e+000 1.706221e+000 3.227571e+000 5.953128e-001 3.514452e-001 3.304846e-001 3.485883e-001 3.161373e-001 3.126248e-001 3.632423e-001 3.739100e-001 3.959420e-001 3.771234e-001 3.924367e-001 3.835986e-001 4.260129e-001
<GCONST> 1.043603e+002
<MIXTURE> 5 4.906524e-002
<MEAN> 39
 -1.746094e+001 -5.826703e-001 6.410580e-001 1.856614e+000 -1.481063e+000 -5.545006e-002 -1.719444e-001 1.969770e+000 2.408634e+000 2.129624e+000 2.800861e+000 4.530581e-001 3.457527e+001 1.542147e-001 -1.791998e+000 -8.554119e-001 -1.031797e+000 -8.924624e-001 -6.006198e-001 -7.360452e-001 -4.361718e-001 -2.996870e-001 -5.060358e-001 -2.421560e-001 -2.240982e-001 2.700709e+000 9.059721e-001 -6.319571e-001 -3.473790e-001 -5.711173e-001 -2.792216e-001 -3.191535e-001 -4.672079e-001 -6.724188e-001 -6.240793e-001 -4.387940e-001 -6.153238e-001 -5.460124e-001 1.751600e+000
<VARIANCE> 39
 9.298247e+000 1.264554e+001 9.350416e+000 9.713490e+000 1.003788e+001 1.140965e+001 1.323586e+001 1.533591e+001 1.515979e+001 1.360793e+001 1.401505e+001 1.147157e+001 1.880742e+001 2.095956e+000 2.584885e+000 1.327510e+000 1.409950e+000 1.528687e+000 1.583377e+000 2.261965e+000 2.372155e+000 2.349629e+000 1.939384e+000 1.949085e+000 1.714621e+000 6.563993e+000 5.630873e-001 3.677677e-001 2.896711e-001 4.050462e-001 2.925249e-001 3.872221e-001 3.708269e-001 4.935408e-001 4.097162e-001 3.972387e-001 5.411866e-001 3.540277e-001 5.232208e-001
<GCONST> 1.021270e+002
<MIXTURE> 6 1.432061e-001
<MEAN> 39
 -2.022753e+001 -8.607011e+000 -1.972965e+000 4.006815e-001 -2.701935e+000 -1.723365e+000 -3.141783e+000 -7.030381e-001 -1.239221e+000 -1.538762e+000 -1.122837e+000 -2.587654e+000 4.858627e+001 -1.398052e-001 -2.022955e-001 -3.097120e-001 -1.811714e-001 -1.799695e-001 -8.563644e-002 -2.179102e-001 -3.861026e-001 -3.393036e-001 -1.222299e-001 -1.901840e-002 -3.687760e-002 2.593507e-001 4.872567e-001 1.513923e-001 1.340478e-001 8.986696e-003 9.866636e-002 3.576323e-002 6.419189e-002 2.636194e-002 9.931370e-002 2.266228e-001 2.247777e-001 1.062315e-001 1.423863e-001
<VARIANCE> 39
 7.743791e+000 1.232655e+001 9.830270e+000 9.425844e+000 9.433330e+000 1.262140e+001 1.167363e+001 1.205871e+001 1.203030e+001 1.121622e+001 9.202374e+000 1.060994e+001 2.726088e+001 6.939566e-001 6.004489e-001 7.625336e-001 9.751850e-001 1.132119e+000 1.266755e+000 1.354997e+000 1.381494e+000 1.439292e+000 1.366390e+000 1.376712e+000 1.279002e+000 8.451795e-001 2.174868e-001 1.436080e-001 1.655677e-001 1.943132e-001 2.170036e-001 2.418147e-001 2.589256e-001 2.752261e-001 2.581581e-001 2.225079e-001 2.129269e-001 2.374687e-001 1.462727e-001
<GCONST> 8.391725e+001
<MIXTURE> 7 9.423079e-002
<MEAN> 39
 -2.033212e+001 -8.807883e+000 -2.201670e+000 5.382024e-001 -2.527125e+000 -1.087334e+000 -2.003757e+000 1.383623e+000 2.064934e+000 2.420715e+000 3.164352e+000 3.281292e-001 4.721146e+001 -4.451959e-001 4.553033e-002 5.599721e-002 2.246505e-001 3.206817e-001 5.823629e-001 4.383928e-001 4.064571e-001 3.662632e-001 4.694136e-001 2.955468e-001 1.048911e-001 -3.819171e-001 5.175193e-001 3.361014e-001 2.765467e-001 8.730308e-002 8.329746e-002 -1.152248e-001 -1.741419e-001 -3.779299e-001 -4.967978e-001 -5.034358e-001 -4.766123e-001 -3.867971e-001 1.265792e-001
<VARIANCE> 39
 1.073972e+001 1.311022e+001 9.928080e+000 1.153177e+001 1.203890e+001 1.203734e+001 1.305989e+001 1.432804e+001 1.506131e+001 1.405805e+001 1.233142e+001 1.080648e+001 3.348589e+001 7.232239e-001 8.108553e-001 9.180831e-001 9.618223e-001 1.190081e+000 1.275950e+000 1.322760e+000 1.421169e+000 1.618805e+000 1.318426e+000 1.388987e+000 1.303853e+000 1.108697e+000 2.630354e-001 2.118990e-001 1.954926e-001 2.184539e-001 2.506866e-001 2.582384e-001 2.866357e-001 3.247359e-001 3.432078e-001 2.747864e-001 2.840167e-001 2.810965e-001 2.248606e-001
<GCONST> 8.964424e+001
<MIXTURE> 8 1.222016e-001
<MEAN> 39
 -1.863087e+001 -7.347298e+000 4.183575e-001 1.967235e+000 -2.300357e+000 -2.244128e+000 -2.818650e+000 1.790489e-001 2.122706e-001 -1.637947e-001 1.088731e-001 -1.926189e+000 4.952929e+001 -2.460261e+000 -1.666969e+000 -1.706559e+000 -8.538663e-001 -2.403115e-001 6.395680e-001 8.198003e-001 1.527485e+000 1.760405e+000 1.515210e+000 1.340803e+000 1.101259e+000 -5.147236e-001 1.283804e+000 4.361455e-001 1.138505e-001 -4.250126e-001 -3.840171e-001 -3.068686e-001 -3.957159e-001 -6.330686e-001 -8.177605e-001 -2.837127e-001 -3.196959e-001 -2.253116e-001 1.417352e-001
<VARIANCE> 39
 1.234839e+001 1.254196e+001 1.470927e+001 1.530112e+001 1.774610e+001 1.806388e+001 1.804375e+001 1.678204e+001 2.032549e+001 2.078462e+001 1.776967e+001 1.454296e+001 2.951821e+001 2.200839e+000 1.638206e+000 1.923984e+000 2.061146e+000 2.533342e+000 2.783413e+000 2.442464e+000 2.553228e+000 2.628936e+000 2.474104e+000 2.268473e+000 1.992209e+000 1.795323e+000 2.804481e-001 2.880427e-001 4.960725e-001 5.541015e-001 4.691181e-001 4.605002e-001 4.909930e-001 5.329174e-001 5.676157e-001 6.146755e-001 5.834396e-001 4.278625e-001 2.656912e-001
<GCONST> 1.085681e+002
<MIXTURE> 9 6.029586e-002
<MEAN> 39
 -1.185683e+001 -1.782767e+000 4.747263e+000 3.424931e+000 -2.354835e+000 -4.974401e+000 -7.825253e+000 -7.702287e+000 -8.723930e+000 -8.412894e+000 -6.447070e+000 -7.138171e+000 4.955299e+001 -4.604191e+000 -1.500497e+000 -2.151250e-001 1.722458e+000 1.165707e+000 1.561014e+000 1.750152e+000 2.745430e+000 2.931889e+000 1.249333e+000 2.190668e+000 1.378531e+000 -8.286206e-001 3.972919e-001 -5.308937e-001 -6.716987e-001 -1.143409e+000 -5.398817e-001 -6.284145e-002 2.541392e-001 3.453266e-001 2.859637e-001 1.096985e+000 2.699315e-001 5.443777e-001 1.243739e-001
<VARIANCE> 39
 2.337855e+001 1.848068e+001 1.707907e+001 1.514274e+001 1.872635e+001 2.939905e+001 2.352284e+001 2.171136e+001 2.168126e+001 1.807747e+001 1.596319e+001 1.576423e+001 3.504350e+001 3.546918e+000 2.454615e+000 4.615593e+000 6.917137e+000 3.492523e+000 4.433923e+000 4.131690e+000 4.715806e+000 3.885978e+000 4.151237e+000 3.507977e+000 2.718663e+000 1.791208e+000 5.528480e-001 4.893936e-001 4.984965e-001 8.357774e-001 5.541900e-001 5.780731e-001 7.238811e-001 7.719303e-001 7.260851e-001 6.137037e-001 7.365398e-001 4.938683e-001 3.040653e-001
<GCONST> 1.209462e+002
<MIXTURE> 10 8.504715e-002
<MEAN> 39
 -2.059402e+001 -9.892094e+000 -2.753282e+000 -3.053585e-001 -2.736903e+000 -1.097033e+000 -1.886108e+000 9.076025e-001 1.736219e+000 2.809036e+000 2.976634e+000 -1.845919e-001 4.893690e+001 -2.562468e-001 -4.462514e-001 -8.158537e-001 -8.488613e-001 -7.917675e-001 -6.712656e-001 -7.352834e-001 -6.887272e-001 -5.257256e-001 -3.406861e-001 -1.683474e-001 -7.920903e-003 3.580507e-001 6.926489e-001 4.127208e-001 3.372966e-001 1.648784e-001 1.337884e-001 -3.931648e-002 -1.468124e-001 -2.940845e-001 -4.297307e-001 -4.849875e-001 -4.146865e-001 -2.661671e-001 1.273226e-001
<VARIANCE> 39
 9.687344e+000 1.179741e+001 1.109007e+001 1.262822e+001 1.378592e+001 1.486772e+001 1.563682e+001 1.461041e+001 1.380731e+001 1.331832e+001 1.117899e+001 1.031669e+001 2.560955e+001 9.347999e-001 7.690294e-001 9.886268e-001 1.122303e+000 1.179159e+000 1.411771e+000 1.513546e+000 1.540622e+000 1.440099e+000 1.520896e+000 1.270524e+000 1.197087e+000 1.113963e+000 2.426956e-001 1.951274e-001 2.305392e-001 2.603710e-001 2.609671e-001 2.606648e-001 3.186339e-001 3.305514e-001 2.973708e-001 2.662095e-001 2.220404e-001 2.282835e-001 1.488337e-001
<GCONST> 8.953378e+001
<STATE> 3
<NUMMIXES> 10
<MIXTURE> 1 1.112635e-001
<MEAN> 39
 -1.053885e+001 -6.875560e+000 -2.309140e+000 -7.029040e-001 -6.701611e-001 8.679539e-001 -2.005947e+000 -1.260659e+000 -1.589697e+000 2.770748e-001 1.049667e+000 -1.429991e+000 5.280973e+001 6.688329e+000 3.092653e+000 9.209268e-001 -3.446193e+000 -3.302875e+000 3.782606e-001 2.143373e-001 4.427485e-001 -9.583727e-001 -1.907304e+000 -7.386117e-002 -1.007103e+000 1.031276e+000 7.871781e-001 4.203827e-001 1.885727e-001 -1.275443e+000 -1.583172e+000 1.220242e-001 -2.838327e-001 2.266357e-001 -1.606950e-001 -4.960231e-001 2.742617e-001 -3.905781e-001 1.862331e-001
<VARIANCE> 39
 2.114018e+001 1.416740e+001 1.210568e+001 1.379678e+001 1.742901e+001 1.773513e+001 1.840614e+001 1.504713e+001 1.552946e+001 1.410057e+001 1.535315e+001 1.233131e+001 2.439217e+001 1.555703e+000 1.693537e+000 2.381461e+000 2.805186e+000 3.201840e+000 3.215773e+000 2.588516e+000 3.494793e+000 3.604649e+000 2.582997e+000 2.675397e+000 2.035042e+000 2.497481e+000 4.298945e-001 4.140604e-001 4.139402e-001 5.217626e-001 5.202530e-001 7.450833e-001 5.842406e-001 6.319891e-001 5.755541e-001 5.898378e-001 6.203846e-001 4.074178e-001 4.356222e-001
<GCONST> 1.114356e+002
<MIXTURE> 2 9.170800e-002
<MEAN> 39
 -1.316375e+001 -5.733070e+000 -9.521224e-002 2.547757e-001 -1.011731e-001 -4.048107e-001 -1.493511e+000 -8.351219e-001 2.963965e-001 7.447377e-001 -9.203237e-001 -3.407708e+000 5.049076e+001 6.848116e+000 -6.191779e-001 -6.621699e-001 -3.873993e+000 -1.027883e+000 1.164959e+000 -6.302035e-001 -6.253811e-001 -1.319403e+000 -2.306965e-001 6.324847e-001 -2.225808e+000 3.568623e+000 7.632204e-001 -9.375926e-001 -3.030687e-001 -1.179811e+000 -5.031409e-001 4.391718e-001 -2.093950e-001 7.133615e-002 -2.440707e-001 -1.218866e-001 3.832386e-001 -5.297256e-001 9.813405e-001
<VARIANCE> 39
 2.360592e+001 1.298051e+001 1.196396e+001 1.085012e+001 1.384614e+001 1.765763e+001 1.442555e+001 1.513904e+001 1.828794e+001 1.913956e+001 1.485683e+001 1.077890e+001 2.665852e+001 1.670280e+000 2.615012e+000 2.389647e+000 3.583348e+000 3.150127e+000 3.194219e+000 3.993968e+000 4.022374e+000 3.284876e+000 3.764160e+000 6.263718e+000 3.508907e+000 3.082487e+000 5.344409e-001 2.594866e-001 3.738103e-001 4.863069e-001 3.660573e-001 5.252417e-001 4.631165e-001 5.728310e-001 5.974779e-001 5.399997e-001 6.773611e-001 4.454649e-001 2.820156e-001
<GCONST> 1.125571e+002
<MIXTURE> 3 1.290391e-001
<MEAN> 39
 -1.693436e+001 -1.047960e+001 -4.261912e+000 -1.410006e+000 -1.925271e+000 -8.697069e-001 -3.732278e+000 -1.745871e+000 -1.280746e+000 1.048218e+000 1.399363e+000 -1.331921e+000 5.341493e+001 2.794232e+000 1.042275e+000 5.703644e-001 -1.080962e-001 5.374494e-001 5.925462e-001 4.837788e-001 -1.699060e-003 -2.758439e-001 -3.371560e-001 -1.422842e-001 -1.594799e-001 2.164949e-001 1.572540e+000 9.498067e-001 3.820021e-001 -8.246667e-001 -8.164165e-001 4.500685e-002 3.117629e-002 8.690199e-002 -2.969669e-001 -4.733067e-001 -1.899286e-001 -2.781558e-001 -1.121321e-001
<VARIANCE> 39
 1.368176e+001 9.096722e+000 8.785008e+000 1.212377e+001 1.386771e+001 1.453975e+001 1.469552e+001 1.522184e+001 1.356150e+001 1.388060e+001 1.425319e+001 1.114248e+001 1.631551e+001 2.421371e+000 1.453059e+000 1.188411e+000 1.666069e+000 1.798000e+000 1.681161e+000 1.544961e+000 1.584412e+000 1.740628e+000 1.429940e+000 1.567661e+000 1.317883e+000 1.226290e+000 2.413927e-001 2.826689e-001 2.928140e-001 5.405554e-001 5.465383e-001 5.009879e-001 3.855392e-001 4.863079e-001 5.654590e-001 4.785727e-001 5.796123e-001 3.307632e-001 2.416668e-001
<GCONST> 9.889111e+001
<MIXTURE> 4 8.905375e-002
<MEAN> 39
 -1.286614e+001 -6.855641e+000 -2.410281e+000 -3.072639e+000 -5.030978e+000 -4.124464e+000 -4.256637e+000 -2.119272e+000 -1.535670e+000 -2.858343e+000 -1.616698e+000 -2.188432e+000 5.259266e+001 6.497539e+000 -1.604088e+000 -2.392006e+000 -4.046706e+000 -3.766905e-001 -8.239810e-001 -1.297776e+000 -2.100367e+000 -1.552083e+000 -9.526337e-001 -3.279838e+000 -2.820051e+000 4.976710e+000 4.579675e-001 -7.326074e-001 -3.651078e-001 -6.329387e-001 4.572878e-001 3.722008e-001 1.229921e-001 -1.913682e-001 -1.544658e-001 6.787978e-002 -5.312183e-001 -5.141096e-001 2.568645e-001
<VARIANCE> 39
 1.834333e+001 1.499194e+001 1.268712e+001 1.244503e+001 1.187899e+001 1.221030e+001 1.466519e+001 1.829715e+001 1.494057e+001 1.289131e+001 1.288196e+001 1.105244e+001 2.979103e+001 1.848542e+000 3.213388e+000 2.157537e+000 4.158561e+000 2.822507e+000 3.091804e+000 3.902394e+000 3.924444e+000 3.466214e+000 3.599535e+000 6.688059e+000 3.278951e+000 3.320932e+000 4.696410e-001 4.514138e-001 3.712357e-001 5.276603e-001 3.363387e-001 4.744218e-001 5.587901e-001 7.126727e-001 5.852502e-001 4.253438e-001 7.701720e-001 4.215791e-001 5.944363e-001
<GCONST> 1.132485e+002
<MIXTURE> 5 1.254732e-001
<MEAN> 39
 -1.993015e+001 -7.339502e+000 -8.903661e-001 9.907582e-001 -2.848529e+000 -2.071239e+000 -3.199757e+000 -1.237982e+000 -1.624946e+000 -1.394081e+000 -7.648295e-001 -2.136782e+000 4.912462e+001 2.367736e+000 4.142799e-001 3.287535e-002 -4.514987e-001 5.087894e-001 3.388477e-001 2.251587e-001 -2.185835e-001 -1.269138e-001 -6.106073e-002 -2.881677e-001 -5.440741e-001 1.142802e+000 1.977581e+000 -6.019035e-003 -3.106079e-001 -1.239014e+000 -3.710682e-001 1.675585e-001 -1.549010e-001 -1.122029e-001 -2.477155e-001 -1.000360e-002 3.199625e-002 -4.598689e-001 8.645456e-001
<VARIANCE> 39
 1.020021e+001 1.305483e+001 1.008576e+001 1.364509e+001 1.275928e+001 1.603234e+001 1.586882e+001 1.605159e+001 1.428990e+001 1.332479e+001 1.166042e+001 1.223389e+001 2.016964e+001 3.335692e+000 1.283045e+000 1.316824e+000 2.033776e+000 1.597579e+000 1.539926e+000 1.752176e+000 1.547446e+000 1.622410e+000 1.701975e+000 1.732121e+000 1.382936e+000 1.828497e+000 1.860072e-001 3.706858e-001 3.184296e-001 5.195629e-001 4.507202e-001 4.587702e-001 5.122145e-001 5.611730e-001 5.116031e-001 4.281279e-001 7.572005e-001 4.354799e-001 2.520360e-001
<GCONST> 1.010950e+002
<MIXTURE> 6 1.079363e-001
<MEAN> 39
 -1.962343e+001 -8.732777e+000 -1.395625e+000 6.512199e-001 -2.076564e+000 -6.232304e-001 -1.621972e+000 7.099504e-001 8.190460e-001 4.182199e-001 1.508567e+000 -8.620272e-001 4.844512e+001 4.837605e+000 4.495871e-001 -1.295623e+000 -2.489342e+000 -9.762329e-001 -1.005336e+000 -1.332922e+000 -1.810549e+000 -1.756046e+000 -1.399249e+000 -1.980289e+000 -1.568487e+000 2.551821e+000 1.872969e+000 -9.210923e-002 -6.069601e-001 -1.591371e+000 -4.701078e-001 -1.731600e-001 -4.894495e-001 -6.161034e-001 -7.874100e-001 -3.703102e-001 -8.476224e-001 -7.099932e-001 8.448051e-001
<VARIANCE> 39
 1.360139e+001 1.480866e+001 1.114321e+001 1.307495e+001 1.483026e+001 1.264901e+001 1.238261e+001 1.475148e+001 1.709919e+001 1.542150e+001 1.424322e+001 1.151665e+001 2.401346e+001 2.435997e+000 2.142226e+000 1.571952e+000 2.276169e+000 1.604073e+000 2.137747e+000 2.005842e+000 1.986659e+000 2.329950e+000 2.246964e+000 2.277158e+000 1.570601e+000 3.876364e+000 2.613839e-001 7.538764e-001 3.699212e-001 7.064727e-001 6.815088e-001 4.967675e-001 5.053340e-001 5.946597e-001 6.487125e-001 5.375203e-001 8.263227e-001 5.531634e-001 4.617958e-001
<GCONST> 1.082254e+002
<MIXTURE> 7 9.889556e-002
<MEAN> 39
 -1.653803e+001 -1.008456e+001 -4.737456e+000 -3.637233e+000 -6.243578e+000 -4.610928e+000 -5.963209e+000 -3.341787e+000 -1.828244e+000 -8.476754e-001 1.515609e-001 -1.998342e+000 5.352449e+001 3.847576e+000 2.598988e-001 -3.833587e-001 -1.637821e+000 -8.974428e-001 -4.386604e-001 -6.656883e-001 -1.094941e+000 -1.052701e+000 -8.439720e-001 -8.537207e-001 -8.323269e-001 2.920281e+000 1.588837e+000 8.388419e-001 2.941261e-001 -6.554165e-001 -1.887646e-001 6.326139e-001 3.566217e-001 1.819295e-001 -3.345401e-001 -8.900062e-002 -1.708174e-001 -4.064146e-001 -3.329268e-001
<VARIANCE> 39
 1.403442e+001 1.007519e+001 8.770967e+000 9.053946e+000 8.637298e+000 8.082085e+000 8.798377e+000 1.143228e+001 9.465629e+000 9.420128e+000 7.825445e+000 7.528074e+000 1.807268e+001 4.218112e+000 3.352247e+000 1.492639e+000 1.843538e+000 2.102515e+000 2.058219e+000 1.934158e+000 2.107101e+000 1.840957e+000 1.723498e+000 1.933080e+000 1.537402e+000 3.835214e+000 3.158880e-001 6.233771e-001 3.711761e-001 6.405458e-001 6.247199e-001 5.450661e-001 5.037486e-001 7.049511e-001 6.180714e-001 4.750655e-001 6.491953e-001 4.383293e-001 6.870024e-001
<GCONST> 1.034086e+002
<MIXTURE> 8 8.103403e-002
<MEAN> 39
 -2.148835e+001 -8.944837e+000 -2.030188e+000 1.276318e+000 -2.000925e+000 -3.528619e-001 -2.118951e+000 4.507826e-001 2.424769e-001 7.119026e-001 1.610774e+000 -4.022613e-001 4.773256e+001 1.099302e+000 -7.771363e-001 -9.209307e-001 -1.122158e+000 -5.085518e-001 -6.013708e-001 -3.966018e-001 -2.964428e-001 -9.690969e-003 3.965160e-001 1.844799e-001 5.017896e-002 1.835451e+000 1.817036e+000 6.502912e-001 1.012522e-001 -6.342087e-001 -3.236791e-001 -6.707158e-002 -1.664016e-001 -3.486508e-001 -4.351419e-001 -2.873937e-001 -3.510759e-001 -4.566325e-001 4.996167e-001
<VARIANCE> 39
 1.205922e+001 9.585376e+000 1.041759e+001 1.129696e+001 1.292614e+001 1.384075e+001 1.156725e+001 1.362304e+001 1.254973e+001 1.114772e+001 1.304951e+001 8.939919e+000 1.922569e+001 1.452455e+000 1.086048e+000 1.041383e+000 1.080549e+000 1.514486e+000 1.347626e+000 1.175352e+000 1.665142e+000 1.314732e+000 1.256666e+000 1.269705e+000 1.210860e+000 2.385671e+000 2.604249e-001 2.429568e-001 2.959867e-001 2.804380e-001 3.828588e-001 3.557372e-001 3.181037e-001 3.524371e-001 3.852993e-001 3.306125e-001 4.468051e-001 2.485954e-001 3.467202e-001
<GCONST> 9.311057e+001
<MIXTURE> 9 7.606964e-002
<MEAN> 39
 -1.236696e+001 -8.116385e+000 -2.449353e+000 -1.397120e-001 -1.851475e+000 -2.087112e+000 -5.833414e+000 -3.766616e+000 -3.150544e+000 -1.802906e+000 -8.332576e-001 -3.198412e+000 5.053420e+001 6.894267e+000 2.348550e+000 -1.403868e+000 -6.016661e+000 -2.406693e+000 -5.620978e-001 -1.268605e+000 -1.736371e+000 -3.897616e+000 -1.272494e+000 -2.428555e+000 -8.393515e-001 1.481153e+000 7.614288e-001 4.067220e-001 -3.542857e-001 -2.047573e+000 -7.596736e-001 1.024957e-001 -1.054030e-002 2.736292e-001 -7.072087e-001 3.146695e-001 -5.456417e-001 6.267166e-002 1.700520e-001
<VARIANCE> 39
 2.089720e+001 1.298287e+001 1.137539e+001 1.367396e+001 1.540221e+001 1.941745e+001 1.714341e+001 1.554587e+001 1.762413e+001 1.494660e+001 1.419224e+001 1.152286e+001 2.547677e+001 1.308643e+000 1.771035e+000 1.875188e+000 4.276967e+000 2.197889e+000 2.826023e+000 2.633468e+000 2.903894e+000 2.329138e+000 2.487317e+000 2.053104e+000 1.963458e+000 1.820329e+000 4.275357e-001 3.947969e-001 2.725094e-001 4.773353e-001 4.648081e-001 6.319770e-001 5.492814e-001 5.361404e-001 5.016304e-001 4.642788e-001 5.213244e-001 3.701416e-001 4.212261e-001
<GCONST> 1.078218e+002
<MIXTURE> 10 8.950936e-002
<MEAN> 39
 -2.210656e+001 -8.191200e+000 -6.976167e-001 1.319742e+000 -2.104304e+000 -2.485917e-001 -1.429012e+000 1.251923e+000 1.740726e+000 2.053540e+000 2.399056e+000 -4.331558e-001 4.475837e+001 1.200771e+000 -5.969704e-001 -7.418195e-001 -8.808820e-001 -6.105983e-001 -8.396946e-001 -7.340940e-001 -8.263482e-001 -8.139439e-001 -8.466806e-001 -8.276732e-001 -5.331612e-001 2.094249e+000 1.840164e+000 3.373421e-001 -3.427034e-001 -9.747103e-001 -3.894553e-001 -2.662851e-001 -4.457434e-001 -5.976716e-001 -7.281751e-001 -5.520236e-001 -6.115000e-001 -5.077852e-001 8.064145e-001
<VARIANCE> 39
 1.129206e+001 1.216231e+001 9.655260e+000 1.149684e+001 1.028982e+001 1.255361e+001 1.295643e+001 1.307577e+001 1.330456e+001 1.322012e+001 1.424952e+001 1.075039e+001 1.895002e+001 1.221874e+000 1.532710e+000 1.138612e+000 1.320002e+000 1.560222e+000 1.439713e+000 1.435512e+000 1.774494e+000 1.449827e+000 1.193515e+000 9.267896e-001 9.884946e-001 2.575862e+000 2.795274e-001 2.697191e-001 2.460799e-001 4.544594e-001 2.989143e-001 3.865754e-001 3.767535e-001 4.414043e-001 3.879465e-001 3.385563e-001 4.885128e-001 3.719290e-001 3.518246e-001
<GCONST> 9.512438e+001
<STATE> 4
<NUMMIXES> 10
<MIXTURE> 1 1.110500e-001
<MEAN> 39
 5.238331e+000 -1.557892e+001 -4.111675e+000 -1.732803e+001 -6.107537e+000 6.369748e+000 -1.908458e+000 -2.848193e+000 -1.999618e+000 -1.089293e+000 5.644102e+000 -1.332016e+001 6.777794e+001 -2.693417e-001 -2.262498e+000 -1.734200e-001 -1.208373e+000 8.571439e-001 1.213251e+000 6.703883e-001 -3.389223e-001 7.796373e-001 -4.530995e-001 -6.195127e-001 -1.136202e+000 1.943958e+000 -1.598159e+000 6.013814e-001 1.743824e-001 1.387443e+000 6.619312e-001 -5.167706e-001 1.093242e-001 -1.142738e-002 2.202848e-001 -1.865588e-002 -8.922313e-001 7.564165e-001 -1.164389e+000
<VARIANCE> 39
 9.706724e+000 2.070758e+001 2.735929e+001 4.023862e+001 3.393636e+001 5.569625e+001 4.329895e+001 5.832781e+001 5.146892e+001 4.716550e+001 6.234894e+001 5.236219e+001 1.774559e+001 7.316914e-001 1.242659e+000 1.053881e+000 1.637941e+000 1.461379e+000 1.664456e+000 1.551036e+000 2.041486e+000 1.641723e+000 1.583202e+000 2.053303e+000 1.331224e+000 1.007369e+000 2.208893e-001 1.863195e-001 2.900853e-001 4.014892e-001 3.324363e-001 4.743294e-001 4.517109e-001 5.235847e-001 5.209095e-001 5.329489e-001 6.044937e-001 5.591924e-001 1.295571e-001
<GCONST> 1.095458e+002
<MIXTURE> 2 1.015730e-001
<MEAN> 39
 1.198808e-001 -3.890448e+000 -3.940006e+000 -7.474641e+000 -4.251266e+000 1.733930e-002 -2.538104e+000 -3.130602e+000 -3.815715e+000 -6.763318e-001 -4.923887e-002 -6.951537e+000 5.614384e+001 6.618105e+000 -1.803089e+000 -9.296542e-001 -4.625755e+000 -1.277217e+000 1.693646e+000 -4.835798e-001 -5.349686e-001 -1.239919e+000 -1.869078e-001 1.050794e+000 -2.817872e+000 4.426881e+000 -1.068929e+000 -9.705905e-001 3.334920e-002 -8.525357e-002 9.798532e-002 3.328186e-001 6.861664e-002 1.861237e-001 2.727628e-001 -3.674313e-002 4.329462e-002 -6.697644e-002 1.238183e-001
<VARIANCE> 39
 2.216567e+001 1.443172e+001 1.409630e+001 2.440518e+001 1.611630e+001 2.234445e+001 1.987436e+001 1.764656e+001 1.614935e+001 2.004927e+001 2.927956e+001 1.979251e+001 2.465148e+001 2.148398e+000 2.278112e+000 3.482921e+000 4.759360e+000 3.888451e+000 4.502914e+000 4.763622e+000 5.582173e+000 5.024181e+000 5.077372e+000 8.702332e+000 4.661883e+000 2.205213e+000 3.210738e-001 2.704449e-001 2.392081e-001 3.948266e-001 2.729242e-001 3.861867e-001 3.464128e-001 3.996098e-001 3.664634e-001 2.909341e-001 4.552242e-001 3.303232e-001 3.693089e-001
<GCONST> 1.144915e+002
<MIXTURE> 3 8.867619e-002
<MEAN> 39
 3.442481e-001 -2.215077e+001 -7.656080e+000 -1.751551e+001 -1.097543e-001 -5.810107e-001 -9.407793e+000 -4.142642e+000 -8.727674e+000 -5.122592e+000 -1.685887e+001 -8.913071e+000 6.716797e+001 -9.953739e-001 -1.701946e+000 2.054816e-001 4.009860e-001 1.719335e+000 1.570640e+000 -3.754414e-001 2.730040e-002 -7.318611e-001 -7.181584e-001 3.429269e-002 8.794514e-001 1.136421e+000 -9.676469e-001 1.043211e+000 3.971953e-001 1.393526e+000 -5.015118e-002 -1.561182e-002 1.881761e-001 5.702664e-002 5.349425e-001 1.108833e-001 1.322304e+000 6.172344e-001 -1.192903e+000
<VARIANCE> 39
 7.445970e+000 1.240828e+001 1.298336e+001 4.062426e+001 4.297212e+001 5.031299e+001 5.041075e+001 3.972317e+001 2.392302e+001 3.622785e+001 3.451580e+001 3.454742e+001 9.079593e+000 2.658595e-001 1.108612e+000 5.528605e-001 1.364879e+000 1.287566e+000 1.171705e+000 1.545136e+000 1.453656e+000 1.437430e+000 1.472341e+000 1.481757e+000 1.429772e+000 7.275298e-001 3.016907e-001 1.284808e-001 1.632041e-001 4.291609e-001 3.792559e-001 4.339781e-001 5.402905e-001 3.296579e-001 2.968291e-001 3.634185e-001 4.008890e-001 4.403245e-001 1.920612e-001
<GCONST> 9.965646e+001
<MIXTURE> 4 9.736000e-002
<MEAN> 39
 1.763988e+000 -9.108655e-001 -6.061311e+000 -1.356000e+001 -1.044643e+001 -5.554931e+000 -8.317900e+000 -7.835525e+000 -1.109226e+001 -6.363778e+000 -5.644668e+000 -5.323560e+000 5.303664e+001 6.594479e+000 2.109452e+000 -1.830888e+000 -8.054316e+000 -2.842712e+000 -1.736273e-001 -1.231809e+000 -9.018072e-001 -4.207687e+000 -3.511832e-001 -2.794800e+000 -7.403257e-001 1.850479e+000 -1.110822e+000 -4.073274e-001 6.271674e-002 -1.353999e-001 2.102572e-001 4.171554e-001 3.424158e-001 8.646061e-001 4.669574e-001 7.033052e-001 1.786745e-001 2.220553e-001 -1.196247e-001
<VARIANCE> 39
 2.307654e+001 1.191844e+001 1.185733e+001 4.634857e+001 1.465843e+001 1.688821e+001 1.467265e+001 1.750168e+001 1.574079e+001 1.544770e+001 1.196906e+001 1.176140e+001 2.473544e+001 1.370440e+000 2.872820e+000 2.036890e+000 3.595568e+000 3.824615e+000 4.957174e+000 3.798698e+000 4.419878e+000 3.810888e+000 3.987817e+000 4.296540e+000 2.913595e+000 1.792068e+000 3.242043e-001 2.641217e-001 2.154972e-001 6.016914e-001 2.772979e-001 3.553237e-001 3.545242e-001 3.584088e-001 4.043805e-001 4.378573e-001 3.493450e-001 2.986050e-001 3.272183e-001
<GCONST> 1.092788e+002
<MIXTURE> 5 8.644307e-002
<MEAN> 39
 7.105466e+000 -1.164895e+001 -3.151904e+000 -1.493822e+001 -1.060775e+001 5.687739e+000 -2.972432e-001 -6.685214e+000 -1.387291e+000 -3.741930e+000 6.640375e+000 -7.231240e+000 6.416292e+001 3.930133e+000 -2.897004e+000 -5.259543e-001 -3.866944e+000 -1.784550e+000 2.313031e+000 1.071373e+000 -1.422531e+000 4.852988e-001 -9.334273e-001 1.540210e+000 -1.589280e+000 3.851650e+000 -2.149599e+000 -1.856592e-001 5.114965e-002 1.003249e+000 8.873169e-001 -3.473277e-001 4.061085e-002 3.041244e-001 2.883999e-001 2.921008e-001 -7.303395e-001 1.677764e-001 -7.937576e-001
<VARIANCE> 39
 8.322390e+000 2.318855e+001 2.057488e+001 3.022570e+001 4.171457e+001 3.973418e+001 3.445571e+001 4.466540e+001 3.973596e+001 3.903350e+001 3.091389e+001 3.503200e+001 1.622321e+001 3.667373e+000 2.219926e+000 2.530507e+000 3.800126e+000 4.959060e+000 4.208688e+000 3.624566e+000 4.364755e+000 3.632668e+000 2.997037e+000 3.079338e+000 3.119217e+000 2.025704e+000 1.762251e-001 3.303538e-001 2.650810e-001 3.368987e-001 4.209602e-001 3.313952e-001 3.912552e-001 4.601160e-001 3.040971e-001 4.277280e-001 3.338048e-001 3.549773e-001 2.985636e-001
<GCONST> 1.164360e+002
<MIXTURE> 6 1.258076e-001
<MEAN> 39
 3.491968e+000 -1.694062e+001 -1.042662e+001 -1.698943e+001 -3.691486e+000 -4.502910e+000 -7.910134e+000 -7.433246e+000 -6.712772e+000 -4.308897e+000 -1.501262e+001 -1.108213e+001 6.455116e+001 2.235092e+000 -3.526254e+000 -1.758028e+000 -2.805446e+000 1.179824e+000 6.709644e-001 -6.622623e-001 -1.068886e+000 -1.366754e+000 -8.060394e-001 -2.920589e+000 -1.506662e+000 3.510750e+000 -2.093897e+000 3.281571e-001 7.740756e-001 1.536774e+000 4.536330e-001 5.032826e-001 4.024522e-001 5.443059e-001 4.670285e-001 1.199069e-001 1.342565e+000 1.018515e+000 -1.162251e+000
<VARIANCE> 39
 8.324834e+000 1.868214e+001 2.032980e+001 4.333960e+001 3.299458e+001 3.775917e+001 5.059866e+001 4.432695e+001 3.039557e+001 4.272437e+001 3.358852e+001 3.213297e+001 1.195993e+001 2.183408e+000 1.834234e+000 2.134167e+000 4.286004e+000 3.009430e+000 2.813684e+000 4.030437e+000 3.703267e+000 2.974233e+000 2.705779e+000 3.619092e+000 2.639071e+000 2.001863e+000 1.273428e-001 2.868044e-001 1.971201e-001 4.259808e-001 3.612228e-001 4.416364e-001 5.568555e-001 4.729312e-001 4.523006e-001 5.141337e-001 4.476587e-001 4.372120e-001 2.157658e-001
<GCONST> 1.148791e+002
<MIXTURE> 7 1.224646e-001
<MEAN> 39
 3.376501e+000 2.155397e+000 -4.928616e-001 -8.560978e+000 -1.009550e+001 -1.854166e+000 -2.399078e+000 -6.297107e-001 -4.463902e+000 -4.501772e+000 -1.310752e+000 -3.871957e+000 5.438840e+001 6.699958e+000 2.779810e+000 1.017200e+000 -5.101058e+000 -5.393675e+000 8.317885e-001 -3.795440e-001 7.905658e-001 -1.173066e+000 -2.143171e+000 5.788883e-001 -1.462724e+000 1.564862e+000 -1.056011e+000 -6.764005e-001 -1.087205e-001 -2.129314e-001 -3.704061e-001 1.753627e-001 -2.665730e-001 9.556343e-002 2.110042e-001 2.078149e-001 4.094539e-001 -6.464460e-002 2.828540e-002
<VARIANCE> 39
 1.962333e+001 1.227774e+001 9.484178e+000 2.788387e+001 2.853072e+001 1.681403e+001 1.520162e+001 1.693977e+001 2.075389e+001 1.760100e+001 1.553127e+001 1.175438e+001 2.422047e+001 1.504995e+000 2.148992e+000 3.328663e+000 3.143585e+000 3.527667e+000 5.486619e+000 4.564563e+000 5.671520e+000 5.263253e+000 4.769467e+000 4.648646e+000 3.361382e+000 1.754453e+000 2.745607e-001 2.395277e-001 2.277045e-001 4.805840e-001 4.682864e-001 3.840424e-001 3.092245e-001 3.311406e-001 4.454374e-001 3.386996e-001 4.222572e-001 2.752857e-001 3.526039e-001
<GCONST> 1.110166e+002
<MIXTURE> 8 9.841441e-002
<MEAN> 39
 2.320011e+000 -9.264906e+000 -9.372458e+000 -1.166018e+001 -5.960177e+000 -4.935316e+000 -7.808916e+000 -8.158019e+000 -4.535715e+000 -4.835889e+000 -9.842067e+000 -9.652910e+000 5.876737e+001 5.557155e+000 -2.804005e+000 -2.795984e+000 -4.349184e+000 1.604794e-001 -4.001814e-001 -1.092394e+000 -2.174364e+000 -1.419637e+000 -1.209110e+000 -4.084463e+000 -3.045145e+000 4.506231e+000 -1.621571e+000 -5.520022e-001 3.921622e-001 6.109655e-001 6.224993e-001 5.214837e-001 4.533606e-001 4.576338e-001 1.953197e-001 1.348116e-001 5.308844e-001 5.684658e-001 -4.666314e-001
<VARIANCE> 39
 1.433599e+001 1.538784e+001 1.236798e+001 2.428249e+001 1.559966e+001 2.051330e+001 2.158710e+001 2.192267e+001 1.813929e+001 2.653876e+001 1.750538e+001 1.962847e+001 1.883499e+001 1.614537e+000 2.839097e+000 2.427984e+000 4.845073e+000 3.633791e+000 3.497052e+000 4.684399e+000 4.480375e+000 4.538931e+000 4.362432e+000 4.476071e+000 3.205727e+000 2.719979e+000 2.771518e-001 2.306959e-001 2.082853e-001 2.707312e-001 2.393161e-001 2.995221e-001 3.495728e-001 3.246805e-001 3.715343e-001 3.321022e-001 3.184963e-001 2.732596e-001 3.314717e-001
<GCONST> 1.098071e+002
<MIXTURE> 9 8.797505e-002
<MEAN> 39
 5.497241e+000 -1.234101e+001 -3.870133e+000 -1.480206e+001 -5.071569e+000 2.483464e+000 -7.559051e+000 2.587644e+000 -6.932787e+000 3.274803e+000 4.284502e+000 -1.477008e+001 6.508706e+001 3.247375e+000 -2.927792e+000 -8.112693e-001 -3.666528e+000 -2.575979e-001 1.716686e+000 -8.168275e-001 1.213520e+000 -1.324487e+000 3.081894e-001 5.853592e-001 -3.157310e+000 3.868129e+000 -2.090508e+000 -6.363840e-002 1.353769e-001 1.038829e+000 4.289570e-001 -1.038950e-002 5.189081e-001 -2.017688e-001 6.358500e-001 -4.963026e-001 -6.570726e-001 8.429925e-001 -8.817121e-001
<VARIANCE> 39
 9.717317e+000 2.346075e+001 2.560020e+001 4.554317e+001 1.704663e+001 4.944545e+001 2.603689e+001 3.779758e+001 3.146145e+001 3.738260e+001 7.381050e+001 3.429140e+001 2.059506e+001 3.595659e+000 1.753935e+000 2.437968e+000 4.474908e+000 1.589561e+000 4.164327e+000 2.894871e+000 2.873039e+000 3.644508e+000 3.047038e+000 6.638722e+000 3.397448e+000 1.500315e+000 1.633508e-001 3.082855e-001 2.695217e-001 4.731274e-001 2.632014e-001 3.659190e-001 3.862446e-001 4.194161e-001 4.148337e-001 4.126478e-001 6.795812e-001 4.645078e-001 2.536812e-001
<GCONST> 1.163981e+002
<MIXTURE> 10 8.022157e-002
<MEAN> 39
 1.613535e+000 -1.593983e+001 -1.408770e+001 -1.327952e+001 -1.901588e+000 -3.562861e+000 -3.805007e+000 -1.157334e+001 -4.952209e+000 -6.997578e+000 -1.248776e+001 -1.290358e+001 6.479283e+001 -8.440741e-001 -1.543628e+000 -4.676945e-001 6.584054e-001 1.496569e+000 7.472040e-001 3.960814e-001 -6.062950e-001 1.807549e-001 -8.125834e-001 -2.466043e-001 1.368717e-001 1.100134e+000 -1.183087e+000 5.785066e-001 9.304344e-001 1.063465e+000 4.743129e-002 1.111321e-001 -1.083888e-001 6.068284e-001 2.738780e-001 2.225124e-001 8.934441e-001 9.031106e-001 -9.383897e-001
<VARIANCE> 39
 1.181606e+001 1.735608e+001 1.803742e+001 4.356612e+001 3.442026e+001 2.982890e+001 3.924577e+001 3.978303e+001 5.082722e+001 5.033036e+001 3.151834e+001 3.267019e+001 1.775144e+001 4.590277e-001 7.950833e-001 8.374451e-001 1.384801e+000 1.393175e+000 1.451753e+000 2.337892e+000 1.459575e+000 1.633661e+000 1.254060e+000 1.720150e+000 1.426872e+000 6.512496e-001 3.015771e-001 1.681192e-001 1.678316e-001 4.133746e-001 3.886949e-001 3.060081e-001 4.426300e-001 5.368428e-001 5.860710e-001 5.507662e-001 4.583270e-001 3.909453e-001 1.229468e-001
<GCONST> 1.037112e+002
<TRANSP> 5
 0.000000e+000 1.000000e+000 0.000000e+000 0.000000e+000 0.000000e+000
 0.000000e+000 8.519424e-001 1.480576e-001 0.000000e+000 0.000000e+000
 0.000000e+000 0.000000e+000 7.039050e-001 2.960950e-001 0.000000e+000
 0.000000e+000 0.000000e+000 0.000000e+000 5.744837e-001 4.255163e-001
 0.000000e+000 0.000000e+000 0.000000e+000 0.000000e+000 0.000000e+000
<ENDHMM>